digraph Tree {
node [shape=box, style="filled", color="black", fontname="helvetica"] ;
edge [fontname="helvetica"] ;
0 [label="odor_n <= 0.5\ngini = 0.499\nsamples = 5686\nvalue = [2945, 2741]\nclass = 독", fillcolor="#fdf6f1"] ;
1 [label="stalk-root_c <= 0.5\ngini = 0.286\nsamples = 3212\nvalue = [556, 2656]\nclass = 식용", fillcolor="#62b2ea"] ;
0 -> 1 [labeldistance=2.5, labelangle=45, headlabel="True"] ;
2 [label="stalk-root_r <= 0.5\ngini = 0.135\nsamples = 2837\nvalue = [206, 2631]\nclass = 식용", fillcolor="#49a5e7"] ;
1 -> 2 ;
3 [label="spore-print-color_u <= 0.5\ngini = 0.051\nsamples = 2702\nvalue = [71, 2631]\nclass = 식용", fillcolor="#3ea0e6"] ;
2 -> 3 ;
4 [label="odor_a <= 0.5\ngini = 0.025\nsamples = 2665\nvalue = [34, 2631]\nclass = 식용", fillcolor="#3c9ee5"] ;
3 -> 4 ;
5 [label="odor_l <= 0.5\ngini = 0.011\nsamples = 2646\nvalue = [15, 2631]\nclass = 식용", fillcolor="#3a9ee5"] ;
4 -> 5 ;
6 [label="gini = 0.0\nsamples = 2631\nvalue = [0, 2631]\nclass = 식용", fillcolor="#399de5"] ;
5 -> 6 ;
7 [label="gini = 0.0\nsamples = 15\nvalue = [15, 0]\nclass = 독", fillcolor="#e58139"] ;
5 -> 7 ;
8 [label="gini = 0.0\nsamples = 19\nvalue = [19, 0]\nclass = 독", fillcolor="#e58139"] ;
4 -> 8 ;
9 [label="gini = 0.0\nsamples = 37\nvalue = [37, 0]\nclass = 독", fillcolor="#e58139"] ;
3 -> 9 ;
10 [label="gini = 0.0\nsamples = 135\nvalue = [135, 0]\nclass = 독", fillcolor="#e58139"] ;
2 -> 10 ;
11 [label="habitat_d <= 0.5\ngini = 0.124\nsamples = 375\nvalue = [350, 25]\nclass = 독", fillcolor="#e78a47"] ;
1 -> 11 ;
12 [label="gini = 0.0\nsamples = 350\nvalue = [350, 0]\nclass = 독", fillcolor="#e58139"] ;
11 -> 12 ;
13 [label="gini = 0.0\nsamples = 25\nvalue = [0, 25]\nclass = 식용", fillcolor="#399de5"] ;
11 -> 13 ;
14 [label="spore-print-color_r <= 0.5\ngini = 0.066\nsamples = 2474\nvalue = [2389, 85]\nclass = 독", fillcolor="#e68540"] ;
0 -> 14 [labeldistance=2.5, labelangle=-45, headlabel="False"] ;
15 [label="stalk-surface-below-ring_y <= 0.5\ngini = 0.03\nsamples = 2426\nvalue = [2389, 37]\nclass = 독", fillcolor="#e5833c"] ;
14 -> 15 ;
16 [label="cap-shape_c <= 0.5\ngini = 0.004\nsamples = 2382\nvalue = [2377, 5]\nclass = 독", fillcolor="#e58139"] ;
15 -> 16 ;
17 [label="cap-surface_g <= 0.5\ngini = 0.003\nsamples = 2380\nvalue = [2377, 3]\nclass = 독", fillcolor="#e58139"] ;
16 -> 17 ;
18 [label="gill-size_n <= 0.5\ngini = 0.002\nsamples = 2379\nvalue = [2377, 2]\nclass = 독", fillcolor="#e58139"] ;
17 -> 18 ;
19 [label="gini = 0.0\nsamples = 2243\nvalue = [2243, 0]\nclass = 독", fillcolor="#e58139"] ;
18 -> 19 ;
20 [label="bruises_t <= 0.5\ngini = 0.029\nsamples = 136\nvalue = [134, 2]\nclass = 독", fillcolor="#e5833c"] ;
18 -> 20 ;
21 [label="gini = 0.0\nsamples = 134\nvalue = [134, 0]\nclass = 독", fillcolor="#e58139"] ;
20 -> 21 ;
22 [label="gini = 0.0\nsamples = 2\nvalue = [0, 2]\nclass = 식용", fillcolor="#399de5"] ;
20 -> 22 ;
23 [label="gini = 0.0\nsamples = 1\nvalue = [0, 1]\nclass = 식용", fillcolor="#399de5"] ;
17 -> 23 ;
24 [label="gini = 0.0\nsamples = 2\nvalue = [0, 2]\nclass = 식용", fillcolor="#399de5"] ;
16 -> 24 ;
25 [label="ring-number_o <= 0.5\ngini = 0.397\nsamples = 44\nvalue = [12, 32]\nclass = 식용", fillcolor="#83c2ef"] ;
15 -> 25 ;
26 [label="gini = 0.0\nsamples = 12\nvalue = [12, 0]\nclass = 독", fillcolor="#e58139"] ;
25 -> 26 ;
27 [label="gini = 0.0\nsamples = 32\nvalue = [0, 32]\nclass = 식용", fillcolor="#399de5"] ;
25 -> 27 ;
28 [label="gini = 0.0\nsamples = 48\nvalue = [0, 48]\nclass = 식용", fillcolor="#399de5"] ;
14 -> 28 ;
}